function [y1] = Nio(x1)
%MYNEURALNETWORKFUNCTION neural network simulation function.
%
% Generated by Neural Network Toolbox function genFunction, 23-Apr-2018 21:11:20.
%
% [y1] = myNeuralNetworkFunction(x1) takes these arguments:
%   x = 10xQ matrix, input #1
% and returns:
%   y = 1xQ matrix, output #1
% where Q is the number of samples.

%#ok<*RPMT0>

% ===== NEURAL NETWORK CONSTANTS =====

% Input 1
x1_step1.xoffset = [0.571923937360179;0.571923937360179;0.571923937360179;0.571476510067114;0.571476510067114;0.571476510067114;0.571476510067114;0.571476510067114;0.571476510067114;0.571476510067114];
x1_step1.gain = [4.67206689312778;4.67206689312778;4.67206689312778;4.66718872357087;4.66718872357087;4.66718872357087;4.66718872357087;4.66718872357087;4.66718872357087;4.66718872357087];
x1_step1.ymin = -1;

% Layer 1
b1 = [2.005737386406194922;1.7161851813403639078;-1.6905557342479808902;-1.4540035926902579178;1.3005618594726167103;0.86526507605035618553;-1.3696236092511573368;0.83093644825456713932;-0.59664879814147375736;-0.58897330462266761497;-0.26783343129549858075;-0.013150391748811791209;-0.07919561669516286817;0.078481957687062592344;-0.52912379560188937955;-0.18332517274735921076;-0.8120153948898816143;0.43768990550450115329;-0.98736392075872236873;-1.0532054234253203084;1.534306705424093531;1.5087952321063491379;-1.4844625934479940277;1.7369108878905685778;-1.8282064323936191297];
IW1_1 = [-0.47653706821975155838 -0.39605199386622730318 0.66373718829199301883 -0.16567790502147292098 0.82585862305999913069 -0.90747064337992389138 -0.11261104935120185011 0.63512861525226882442 -0.05765259573311642266 -0.81184797539818331913;-0.051730249281211025669 -0.71823632556113325975 0.9537607105932439655 0.49698576098805430368 0.80661120014865672623 0.72197265297655899285 -0.65440462266873788977 -0.1992115414485271796 -0.18686648924242252323 0.74897592132452339708;0.43327163130045986961 0.44241922597743804646 0.9045938354035595319 -0.55916846061558134195 0.6817238294895354711 0.63152516227756549938 -0.69365208966416413983 -0.87212261222510423231 0.28562445695988258887 -0.043282384662339641601;0.32782144140186930681 0.13519994982753147372 -0.53076758193066364555 -0.47380678871858672441 -0.54645369073975158525 -0.45881013245592344729 -0.56773576348768728383 0.97857923625205434082 -0.43422788121522559734 -0.36567157223057500381;-0.028353187944604812953 0.35061690475466228412 -0.12996520261968952381 -0.60727517692641175273 -0.65198985702967893197 0.51121809210709034943 -0.76697350040388412307 0.48767602187108527456 -0.93573639401895714052 -0.019066053791989924504;-0.68369531976397457385 0.56792669532872575022 0.32532089824539178746 0.82283023772114771699 -0.87808401584710704668 0.55168307283962148002 0.65952734692996917154 -0.62545453640141124296 0.088734371776413037414 0.35396333344008618083;0.68090046409588389498 -0.5706753535745311412 0.99378922999509156089 0.49301252486397340036 0.29914634832536968201 1.0065107203494962906 0.86527972182500556553 -0.063997701866360071077 -0.020506780706972947692 -0.24268826764693493536;-0.63124526521188351058 -0.3859059982910975628 -0.58035497086841714154 -0.52719095800785165107 -0.8417260331073874724 -0.69986537122825065449 0.55830457683518563972 -0.049720631864045704285 -0.65721442635486349015 -0.86689784440003403443;0.095176930958967564944 -0.56766370091344620086 0.90078710458306232578 0.28990415333994612457 -0.22679026938143020953 0.079607738717370798986 0.25738673576042980784 0.65195299520496774459 -0.043701877185810075743 -1.5070157524046270403;0.22357909329975209078 0.26763208828978285458 -0.23399730427954756884 -0.78605140153973196426 -0.79399481634427537813 0.87579088127860038604 -0.81891039667869247598 0.50015870594964617624 0.39938598841201367051 -0.58172879442605462952;-0.074654232792076738456 -1.0281567608645258982 -0.83307689570604337437 -0.84144432446982253548 0.92127758733954523418 0.41840400718962217352 -0.28894267818257479696 0.53997397912460609604 -0.078329886879369883812 0.54291914325918866346;0.064060392954668546328 -0.39882397164544830526 0.69482943077437619994 -0.16711007958026852238 -0.34828511981468585068 -0.32481603165658240462 0.81673360316041276885 0.57496469445003006715 1.0400753683825219031 -0.83335955782456716534;0.50075474697390898182 -0.56949099655312807045 -0.12447524650938890378 0.76504103761482378232 -0.50811733776992706879 0.22230958115979440604 0.68992450475799627085 -0.43019842393562079952 -0.66997203215687040068 0.2686937233352138521;-0.57274726042287926742 -0.082068988673371937037 0.45744547995352091707 -1.1787120332074469964 -0.65731847129992182488 -0.02818352795786649781 0.089237574979465161817 -0.092354218390728756716 -0.38791866282440640168 -0.94880940082615283782;-0.30119490357044875761 0.28779777477695900334 0.7139791553929861756 -0.018526589154490121641 0.61472700968045035363 0.63643267068117481688 -0.41134911947444624536 0.51133757573467497615 0.81460988830660407967 -0.004410909337402444709;-0.84458617562613313989 0.6195672799996171376 0.80704183830343267925 0.23579714974773186009 -0.41119401918395076523 0.94599429499381237907 0.23194855444289291801 0.63364316719254654142 -0.4559659429708766698 -0.87571665633064332823;-0.16664459753381671847 0.27232327971726150162 -0.050954136377163991578 0.6926348568885445367 -0.40878031903753109244 -1.017206730541774018 -0.30489106461078557819 0.85546272165723158398 0.73983085019198524535 0.38188777368167381443;0.95161009036464117017 0.053635753632077523556 0.23940989622248290414 -0.73874404971778728779 0.34714902769068606281 -1.0627319866362536782 -0.37758448718693637947 -0.016370432162216792815 1.1099230307475502766 0.40138229840982164731;-0.045745621759698769371 0.041599374717198815687 0.88314005765909286971 0.88295371545285683546 0.20316272146258010367 -0.069337719919411969216 0.95107473687723631528 0.068888195275176811183 -0.50133432465507210551 -0.74752059219792488243;-0.74712890976718071556 -0.84312242545868965049 0.22791133044081193781 0.11989520210643209164 -0.44823262060020802044 -0.75504319931892149853 0.71107255268677638238 0.76219130914721155978 0.21484528002708516703 0.41830722778962631248;0.35301954937394447454 -0.84404074896318093124 0.25503392665050717003 -0.4371805445219186792 0.38230232824065923936 -0.68603888482513353253 0.67962630646450750138 -0.17347749854018718052 0.87419951418501795626 -0.57809815276685483365;0.59755752668043138343 0.80795123619281072891 -0.67289006581960741915 -0.82992348287055672795 -0.54136046438531160163 -0.14086260555549487417 0.0038973183256947648706 -0.54174548117763754451 0.15747314312681851001 -0.59171283330203106043;-0.41595071278720269214 -0.33602047044442090451 -0.038711466001969598028 -0.04967831252685478427 0.078683395069504447061 0.52767243593545298808 1.2945856557880421889 0.83771971463087435694 0.62032657898638132732 0.85847081451355611303;0.52962582075331010589 -0.53842224314068209967 -0.79405280540190203986 0.36161820458231463959 -0.81598916879554594939 -0.37970724631333230281 -0.1058486360337700799 0.65787155896258697751 0.00013887004850054573274 -0.89131266038934353624;-0.31248507862969943094 0.04863946919527373236 -0.63677086243784364328 0.33580263885446803851 0.66528167392237402833 0.67604671023117812734 -0.77570819007953761837 -0.76965835718652420017 1.1888023062811809982 0.59893469989471170845];

% Layer 2
b2 = -0.35254642895234544753;
LW2_1 = [-0.34355857156399660646 0.24030028816672882597 0.29695659418470415902 0.26349039277445440721 -0.31170298681322017309 0.42268673984284571565 0.19719124147028305183 0.012890187158649483307 -0.35839501604552009839 -0.13849610036619894315 0.33934264498505312124 -0.10586423777151990344 0.27384399527110520056 -0.040089276112895672055 0.0032465507891850063638 0.54057849471488927939 0.24632264833231262702 0.52173964485413415471 -0.56615743646164862213 0.10822803476628914399 0.21562166570966395662 -0.17518392249977121633 -0.11902156521469815786 -0.14573737849248297183 -0.69126426802718066167];

% Output 1
y1_step1.ymin = -1;
y1_step1.gain = 4.66718872357087;
y1_step1.xoffset = 0.571476510067114;

% ===== SIMULATION ========

% Dimensions
Q = size(x1,2); % samples

% Input 1
xp1 = mapminmax_apply(x1,x1_step1);

% Layer 1
a1 = tansig_apply(repmat(b1,1,Q) + IW1_1*xp1);

% Layer 2
a2 = repmat(b2,1,Q) + LW2_1*a1;

% Output 1
y1 = mapminmax_reverse(a2,y1_step1);
end

% ===== MODULE FUNCTIONS ========

% Map Minimum and Maximum Input Processing Function
function y = mapminmax_apply(x,settings)
y = bsxfun(@minus,x,settings.xoffset);
y = bsxfun(@times,y,settings.gain);
y = bsxfun(@plus,y,settings.ymin);
end

% Sigmoid Symmetric Transfer Function
function a = tansig_apply(n,~)
a = 2 ./ (1 + exp(-2*n)) - 1;
end

% Map Minimum and Maximum Output Reverse-Processing Function
function x = mapminmax_reverse(y,settings)
x = bsxfun(@minus,y,settings.ymin);
x = bsxfun(@rdivide,x,settings.gain);
x = bsxfun(@plus,x,settings.xoffset);
end
